digraph Tree {
0 [label="X[38] <= 0.5000\ngini = 0.494092627599\nsamples = 552", shape="box"] ;
1 [label="X[1] <= 0.1850\ngini = 0.12751377062\nsamples = 263", shape="box"] ;
0 -> 1 ;
2 [label="X[35] <= 0.5000\ngini = 0.462809917355\nsamples = 22", shape="box"] ;
1 -> 2 ;
3 [label="X[19] <= 0.5000\ngini = 0.244897959184\nsamples = 7", shape="box"] ;
2 -> 3 ;
4 [label="gini = 0.0000\nsamples = 6\nvalue = [ 0.  6.]", shape="box"] ;
3 -> 4 ;
5 [label="gini = 0.0000\nsamples = 1\nvalue = [ 1.  0.]", shape="box"] ;
3 -> 5 ;
6 [label="X[0] <= 35.6650\ngini = 0.231111111111\nsamples = 15", shape="box"] ;
2 -> 6 ;
7 [label="gini = 0.0000\nsamples = 13\nvalue = [ 13.   0.]", shape="box"] ;
6 -> 7 ;
8 [label="gini = 0.0000\nsamples = 2\nvalue = [ 0.  2.]", shape="box"] ;
6 -> 8 ;
9 [label="X[8] <= 0.5000\ngini = 0.0795440849848\nsamples = 241", shape="box"] ;
1 -> 9 ;
10 [label="X[0] <= 33.6250\ngini = 0.0647047495667\nsamples = 239", shape="box"] ;
9 -> 10 ;
11 [label="X[26] <= 0.5000\ngini = 0.0233885368159\nsamples = 169", shape="box"] ;
10 -> 11 ;
12 [label="X[1] <= 0.7075\ngini = 0.0129864581998\nsamples = 153", shape="box"] ;
11 -> 12 ;
13 [label="X[1] <= 0.6450\ngini = 0.0739644970414\nsamples = 26", shape="box"] ;
12 -> 13 ;
14 [label="gini = 0.0000\nsamples = 24\nvalue = [ 24.   0.]", shape="box"] ;
13 -> 14 ;
15 [label="X[11] <= 0.5000\ngini = 0.5\nsamples = 2", shape="box"] ;
13 -> 15 ;
16 [label="gini = 0.0000\nsamples = 1\nvalue = [ 1.  0.]", shape="box"] ;
15 -> 16 ;
17 [label="gini = 0.0000\nsamples = 1\nvalue = [ 0.  1.]", shape="box"] ;
15 -> 17 ;
18 [label="gini = 0.0000\nsamples = 127\nvalue = [ 127.    0.]", shape="box"] ;
12 -> 18 ;
19 [label="X[2] <= 1.2500\ngini = 0.1171875\nsamples = 16", shape="box"] ;
11 -> 19 ;
20 [label="gini = 0.0000\nsamples = 13\nvalue = [ 13.   0.]", shape="box"] ;
19 -> 20 ;
21 [label="X[5] <= 6.5000\ngini = 0.444444444444\nsamples = 3", shape="box"] ;
19 -> 21 ;
22 [label="gini = 0.0000\nsamples = 2\nvalue = [ 2.  0.]", shape="box"] ;
21 -> 22 ;
23 [label="gini = 0.0000\nsamples = 1\nvalue = [ 0.  1.]", shape="box"] ;
21 -> 23 ;
24 [label="X[1] <= 0.4375\ngini = 0.156734693878\nsamples = 70", shape="box"] ;
10 -> 24 ;
25 [label="gini = 0.0000\nsamples = 1\nvalue = [ 0.  1.]", shape="box"] ;
24 -> 25 ;
26 [label="X[27] <= 0.5000\ngini = 0.134425540853\nsamples = 69", shape="box"] ;
24 -> 26 ;
27 [label="X[17] <= 0.5000\ngini = 0.112274448652\nsamples = 67", shape="box"] ;
26 -> 27 ;
28 [label="X[0] <= 34.2950\ngini = 0.0907029478458\nsamples = 63", shape="box"] ;
27 -> 28 ;
29 [label="X[0] <= 34.0850\ngini = 0.375\nsamples = 4", shape="box"] ;
28 -> 29 ;
30 [label="gini = 0.0000\nsamples = 3\nvalue = [ 3.  0.]", shape="box"] ;
29 -> 30 ;
31 [label="gini = 0.0000\nsamples = 1\nvalue = [ 0.  1.]", shape="box"] ;
29 -> 31 ;
32 [label="X[5] <= 1845.0000\ngini = 0.0654984199943\nsamples = 59", shape="box"] ;
28 -> 32 ;
33 [label="X[28] <= 0.5000\ngini = 0.0357024793388\nsamples = 55", shape="box"] ;
32 -> 33 ;
34 [label="gini = 0.0000\nsamples = 47\nvalue = [ 47.   0.]", shape="box"] ;
33 -> 34 ;
35 [label="X[1] <= 2.0200\ngini = 0.21875\nsamples = 8", shape="box"] ;
33 -> 35 ;
36 [label="X[4] <= 258.0000\ngini = 0.5\nsamples = 2", shape="box"] ;
35 -> 36 ;
37 [label="gini = 0.0000\nsamples = 1\nvalue = [ 0.  1.]", shape="box"] ;
36 -> 37 ;
38 [label="gini = 0.0000\nsamples = 1\nvalue = [ 1.  0.]", shape="box"] ;
36 -> 38 ;
39 [label="gini = 0.0000\nsamples = 6\nvalue = [ 6.  0.]", shape="box"] ;
35 -> 39 ;
40 [label="X[4] <= 160.0000\ngini = 0.375\nsamples = 4", shape="box"] ;
32 -> 40 ;
41 [label="gini = 0.0000\nsamples = 1\nvalue = [ 0.  1.]", shape="box"] ;
40 -> 41 ;
42 [label="gini = 0.0000\nsamples = 3\nvalue = [ 3.  0.]", shape="box"] ;
40 -> 42 ;
43 [label="X[4] <= 335.5000\ngini = 0.375\nsamples = 4", shape="box"] ;
27 -> 43 ;
44 [label="gini = 0.0000\nsamples = 3\nvalue = [ 3.  0.]", shape="box"] ;
43 -> 44 ;
45 [label="gini = 0.0000\nsamples = 1\nvalue = [ 0.  1.]", shape="box"] ;
43 -> 45 ;
46 [label="X[2] <= 2.9175\ngini = 0.5\nsamples = 2", shape="box"] ;
26 -> 46 ;
47 [label="gini = 0.0000\nsamples = 1\nvalue = [ 1.  0.]", shape="box"] ;
46 -> 47 ;
48 [label="gini = 0.0000\nsamples = 1\nvalue = [ 0.  1.]", shape="box"] ;
46 -> 48 ;
49 [label="gini = 0.0000\nsamples = 2\nvalue = [ 0.  2.]", shape="box"] ;
9 -> 49 ;
50 [label="X[3] <= 0.5000\ngini = 0.33304198944\nsamples = 289", shape="box"] ;
0 -> 50 ;
51 [label="X[5] <= 450.0000\ngini = 0.48827205584\nsamples = 111", shape="box"] ;
50 -> 51 ;
52 [label="X[4] <= 96.0000\ngini = 0.499773653237\nsamples = 94", shape="box"] ;
51 -> 52 ;
53 [label="X[10] <= 0.5000\ngini = 0.375\nsamples = 24", shape="box"] ;
52 -> 53 ;
54 [label="X[0] <= 76.8350\ngini = 0.197530864198\nsamples = 18", shape="box"] ;
53 -> 54 ;
55 [label="X[19] <= 0.5000\ngini = 0.110726643599\nsamples = 17", shape="box"] ;
54 -> 55 ;
56 [label="gini = 0.0000\nsamples = 15\nvalue = [  0.  15.]", shape="box"] ;
55 -> 56 ;
57 [label="X[41] <= 0.5000\ngini = 0.5\nsamples = 2", shape="box"] ;
55 -> 57 ;
58 [label="gini = 0.0000\nsamples = 1\nvalue = [ 0.  1.]", shape="box"] ;
57 -> 58 ;
59 [label="gini = 0.0000\nsamples = 1\nvalue = [ 1.  0.]", shape="box"] ;
57 -> 59 ;
60 [label="gini = 0.0000\nsamples = 1\nvalue = [ 1.  0.]", shape="box"] ;
54 -> 60 ;
61 [label="X[2] <= 2.0000\ngini = 0.444444444444\nsamples = 6", shape="box"] ;
53 -> 61 ;
62 [label="gini = 0.0000\nsamples = 3\nvalue = [ 3.  0.]", shape="box"] ;
61 -> 62 ;
63 [label="X[15] <= 0.5000\ngini = 0.444444444444\nsamples = 3", shape="box"] ;
61 -> 63 ;
64 [label="gini = 0.0000\nsamples = 1\nvalue = [ 1.  0.]", shape="box"] ;
63 -> 64 ;
65 [label="gini = 0.0000\nsamples = 2\nvalue = [ 0.  2.]", shape="box"] ;
63 -> 65 ;
66 [label="X[31] <= 0.5000\ngini = 0.489795918367\nsamples = 70", shape="box"] ;
52 -> 66 ;
67 [label="X[0] <= 26.6650\ngini = 0.4488\nsamples = 50", shape="box"] ;
66 -> 67 ;
68 [label="X[0] <= 23.1250\ngini = 0.5\nsamples = 22", shape="box"] ;
67 -> 68 ;
69 [label="X[1] <= 4.5625\ngini = 0.396694214876\nsamples = 11", shape="box"] ;
68 -> 69 ;
70 [label="gini = 0.0000\nsamples = 6\nvalue = [ 6.  0.]", shape="box"] ;
69 -> 70 ;
71 [label="X[5] <= 34.0000\ngini = 0.48\nsamples = 5", shape="box"] ;
69 -> 71 ;
72 [label="gini = 0.0000\nsamples = 3\nvalue = [ 0.  3.]", shape="box"] ;
71 -> 72 ;
73 [label="gini = 0.0000\nsamples = 2\nvalue = [ 2.  0.]", shape="box"] ;
71 -> 73 ;
74 [label="X[2] <= 0.8550\ngini = 0.396694214876\nsamples = 11", shape="box"] ;
68 -> 74 ;
75 [label="gini = 0.0000\nsamples = 5\nvalue = [ 0.  5.]", shape="box"] ;
74 -> 75 ;
76 [label="X[1] <= 9.8325\ngini = 0.5\nsamples = 6", shape="box"] ;
74 -> 76 ;
77 [label="X[1] <= 4.4175\ngini = 0.375\nsamples = 4", shape="box"] ;
76 -> 77 ;
78 [label="X[41] <= 0.5000\ngini = 0.5\nsamples = 2", shape="box"] ;
77 -> 78 ;
79 [label="gini = 0.0000\nsamples = 1\nvalue = [ 0.  1.]", shape="box"] ;
78 -> 79 ;
80 [label="gini = 0.0000\nsamples = 1\nvalue = [ 1.  0.]", shape="box"] ;
78 -> 80 ;
81 [label="gini = 0.0000\nsamples = 2\nvalue = [ 0.  2.]", shape="box"] ;
77 -> 81 ;
82 [label="gini = 0.0000\nsamples = 2\nvalue = [ 2.  0.]", shape="box"] ;
76 -> 82 ;
83 [label="X[0] <= 46.6700\ngini = 0.336734693878\nsamples = 28", shape="box"] ;
67 -> 83 ;
84 [label="X[1] <= 0.2925\ngini = 0.21875\nsamples = 24", shape="box"] ;
83 -> 84 ;
85 [label="gini = 0.0000\nsamples = 1\nvalue = [ 0.  1.]", shape="box"] ;
84 -> 85 ;
86 [label="X[5] <= 100.5000\ngini = 0.158790170132\nsamples = 23", shape="box"] ;
84 -> 86 ;
87 [label="X[23] <= 0.5000\ngini = 0.0907029478458\nsamples = 21", shape="box"] ;
86 -> 87 ;
88 [label="gini = 0.0000\nsamples = 17\nvalue = [ 17.   0.]", shape="box"] ;
87 -> 88 ;
89 [label="X[45] <= 0.5000\ngini = 0.375\nsamples = 4", shape="box"] ;
87 -> 89 ;
90 [label="gini = 0.0000\nsamples = 1\nvalue = [ 0.  1.]", shape="box"] ;
89 -> 90 ;
91 [label="gini = 0.0000\nsamples = 3\nvalue = [ 3.  0.]", shape="box"] ;
89 -> 91 ;
92 [label="X[13] <= 0.5000\ngini = 0.5\nsamples = 2", shape="box"] ;
86 -> 92 ;
93 [label="gini = 0.0000\nsamples = 1\nvalue = [ 0.  1.]", shape="box"] ;
92 -> 93 ;
94 [label="gini = 0.0000\nsamples = 1\nvalue = [ 1.  0.]", shape="box"] ;
92 -> 94 ;
95 [label="X[1] <= 1.5200\ngini = 0.375\nsamples = 4", shape="box"] ;
83 -> 95 ;
96 [label="gini = 0.0000\nsamples = 1\nvalue = [ 1.  0.]", shape="box"] ;
95 -> 96 ;
97 [label="gini = 0.0000\nsamples = 3\nvalue = [ 0.  3.]", shape="box"] ;
95 -> 97 ;
98 [label="X[2] <= 7.7300\ngini = 0.455\nsamples = 20", shape="box"] ;
66 -> 98 ;
99 [label="X[0] <= 58.4600\ngini = 0.401234567901\nsamples = 18", shape="box"] ;
98 -> 99 ;
100 [label="X[2] <= 0.8550\ngini = 0.359861591696\nsamples = 17", shape="box"] ;
99 -> 100 ;
101 [label="X[2] <= 0.0625\ngini = 0.444444444444\nsamples = 3", shape="box"] ;
100 -> 101 ;
102 [label="gini = 0.0000\nsamples = 1\nvalue = [ 0.  1.]", shape="box"] ;
101 -> 102 ;
103 [label="gini = 0.0000\nsamples = 2\nvalue = [ 2.  0.]", shape="box"] ;
101 -> 103 ;
104 [label="X[14] <= 0.5000\ngini = 0.244897959184\nsamples = 14", shape="box"] ;
100 -> 104 ;
105 [label="X[5] <= 0.5000\ngini = 0.14201183432\nsamples = 13", shape="box"] ;
104 -> 105 ;
106 [label="gini = 0.0000\nsamples = 10\nvalue = [  0.  10.]", shape="box"] ;
105 -> 106 ;
107 [label="X[41] <= 0.5000\ngini = 0.444444444444\nsamples = 3", shape="box"] ;
105 -> 107 ;
108 [label="gini = 0.0000\nsamples = 1\nvalue = [ 1.  0.]", shape="box"] ;
107 -> 108 ;
109 [label="gini = 0.0000\nsamples = 2\nvalue = [ 0.  2.]", shape="box"] ;
107 -> 109 ;
110 [label="gini = 0.0000\nsamples = 1\nvalue = [ 1.  0.]", shape="box"] ;
104 -> 110 ;
111 [label="gini = 0.0000\nsamples = 1\nvalue = [ 1.  0.]", shape="box"] ;
99 -> 111 ;
112 [label="gini = 0.0000\nsamples = 2\nvalue = [ 2.  0.]", shape="box"] ;
98 -> 112 ;
113 [label="X[28] <= 0.5000\ngini = 0.110726643599\nsamples = 17", shape="box"] ;
51 -> 113 ;
114 [label="gini = 0.0000\nsamples = 16\nvalue = [  0.  16.]", shape="box"] ;
113 -> 114 ;
115 [label="gini = 0.0000\nsamples = 1\nvalue = [ 1.  0.]", shape="box"] ;
113 -> 115 ;
116 [label="X[1] <= 1.3550\ngini = 0.144931195556\nsamples = 178", shape="box"] ;
50 -> 116 ;
117 [label="X[1] <= 1.0200\ngini = 0.313271604938\nsamples = 36", shape="box"] ;
116 -> 117 ;
118 [label="X[42] <= 0.5000\ngini = 0.21875\nsamples = 32", shape="box"] ;
117 -> 118 ;
119 [label="gini = 0.0000\nsamples = 16\nvalue = [  0.  16.]", shape="box"] ;
118 -> 119 ;
120 [label="X[4] <= 244.0000\ngini = 0.375\nsamples = 16", shape="box"] ;
118 -> 120 ;
121 [label="X[4] <= 118.0000\ngini = 0.444444444444\nsamples = 6", shape="box"] ;
120 -> 121 ;
122 [label="gini = 0.0000\nsamples = 2\nvalue = [ 0.  2.]", shape="box"] ;
121 -> 122 ;
123 [label="gini = 0.0000\nsamples = 4\nvalue = [ 4.  0.]", shape="box"] ;
121 -> 123 ;
124 [label="gini = 0.0000\nsamples = 10\nvalue = [  0.  10.]", shape="box"] ;
120 -> 124 ;
125 [label="X[2] <= 3.1875\ngini = 0.375\nsamples = 4", shape="box"] ;
117 -> 125 ;
126 [label="gini = 0.0000\nsamples = 3\nvalue = [ 3.  0.]", shape="box"] ;
125 -> 126 ;
127 [label="gini = 0.0000\nsamples = 1\nvalue = [ 0.  1.]", shape="box"] ;
125 -> 127 ;
128 [label="X[2] <= 0.0200\ngini = 0.0937314024995\nsamples = 142", shape="box"] ;
116 -> 128 ;
129 [label="X[6] <= 0.5000\ngini = 0.444444444444\nsamples = 6", shape="box"] ;
128 -> 129 ;
130 [label="gini = 0.0000\nsamples = 2\nvalue = [ 2.  0.]", shape="box"] ;
129 -> 130 ;
131 [label="gini = 0.0000\nsamples = 4\nvalue = [ 0.  4.]", shape="box"] ;
129 -> 131 ;
132 [label="X[5] <= 5.5000\ngini = 0.0708261245675\nsamples = 136", shape="box"] ;
128 -> 132 ;
133 [label="X[5] <= 3.0000\ngini = 0.18\nsamples = 40", shape="box"] ;
132 -> 133 ;
134 [label="X[0] <= 20.7100\ngini = 0.14201183432\nsamples = 39", shape="box"] ;
133 -> 134 ;
135 [label="X[3] <= 4.0000\ngini = 0.5\nsamples = 2", shape="box"] ;
134 -> 135 ;
136 [label="gini = 0.0000\nsamples = 1\nvalue = [ 1.  0.]", shape="box"] ;
135 -> 136 ;
137 [label="gini = 0.0000\nsamples = 1\nvalue = [ 0.  1.]", shape="box"] ;
135 -> 137 ;
138 [label="X[26] <= 0.5000\ngini = 0.102264426589\nsamples = 37", shape="box"] ;
134 -> 138 ;
139 [label="X[20] <= 0.5000\ngini = 0.0570934256055\nsamples = 34", shape="box"] ;
138 -> 139 ;
140 [label="gini = 0.0000\nsamples = 30\nvalue = [  0.  30.]", shape="box"] ;
139 -> 140 ;
141 [label="X[3] <= 3.0000\ngini = 0.375\nsamples = 4", shape="box"] ;
139 -> 141 ;
142 [label="gini = 0.0000\nsamples = 1\nvalue = [ 1.  0.]", shape="box"] ;
141 -> 142 ;
143 [label="gini = 0.0000\nsamples = 3\nvalue = [ 0.  3.]", shape="box"] ;
141 -> 143 ;
144 [label="X[0] <= 29.3750\ngini = 0.444444444444\nsamples = 3", shape="box"] ;
138 -> 144 ;
145 [label="gini = 0.0000\nsamples = 1\nvalue = [ 1.  0.]", shape="box"] ;
144 -> 145 ;
146 [label="gini = 0.0000\nsamples = 2\nvalue = [ 0.  2.]", shape="box"] ;
144 -> 146 ;
147 [label="gini = 0.0000\nsamples = 1\nvalue = [ 1.  0.]", shape="box"] ;
133 -> 147 ;
148 [label="X[24] <= 0.5000\ngini = 0.0206163194444\nsamples = 96", shape="box"] ;
132 -> 148 ;
149 [label="gini = 0.0000\nsamples = 78\nvalue = [  0.  78.]", shape="box"] ;
148 -> 149 ;
150 [label="X[0] <= 22.5400\ngini = 0.104938271605\nsamples = 18", shape="box"] ;
148 -> 150 ;
151 [label="X[3] <= 8.5000\ngini = 0.32\nsamples = 5", shape="box"] ;
150 -> 151 ;
152 [label="gini = 0.0000\nsamples = 4\nvalue = [ 0.  4.]", shape="box"] ;
151 -> 152 ;
153 [label="gini = 0.0000\nsamples = 1\nvalue = [ 1.  0.]", shape="box"] ;
151 -> 153 ;
154 [label="gini = 0.0000\nsamples = 13\nvalue = [  0.  13.]", shape="box"] ;
150 -> 154 ;
}